digraph Tree {
node [shape=box, style="filled, rounded", color="black", fontname="helvetica"] ;
edge [fontname="helvetica"] ;
0 [label=<sepal length in cm &le; 1.5<br/>gini = 0.594<br/>samples = 8<br/>value = [4, 3, 1]>, fillcolor="#fae6d7"] ;
1 [label=<gini = 0.0<br/>samples = 4<br/>value = [4, 0, 0]>, fillcolor="#e58139"] ;
0 -> 1 [labeldistance=2.5, labelangle=45, headlabel="True"] ;
2 [label=<petal width in cm &le; 2.5<br/>gini = 0.375<br/>samples = 4<br/>value = [0, 3, 1]>, fillcolor="#7beeab"] ;
0 -> 2 [labeldistance=2.5, labelangle=-45, headlabel="False"] ;
3 [label=<gini = 0.0<br/>samples = 2<br/>value = [0, 2, 0]>, fillcolor="#39e581"] ;
2 -> 3 ;
4 [label=<sepal width in cm &le; 1.5<br/>gini = 0.5<br/>samples = 2<br/>value = [0, 1, 1]>, fillcolor="#ffffff"] ;
2 -> 4 ;
5 [label=<gini = 0.0<br/>samples = 1<br/>value = [0, 0, 1]>, fillcolor="#8139e5"] ;
4 -> 5 ;
6 [label=<gini = 0.0<br/>samples = 1<br/>value = [0, 1, 0]>, fillcolor="#39e581"] ;
4 -> 6 ;
}