digraph Tree {
node [shape=box, style="filled, rounded", color="black", fontname="helvetica"] ;
edge [fontname="helvetica"] ;
0 [label=<petal width in cm &le; 1.5<br/>gini = 0.579<br/>samples = 33<br/>value = [15, 15, 3]>, fillcolor="#ffffff"] ;
1 [label=<gini = 0.0<br/>samples = 15<br/>value = [15, 0, 0]>, fillcolor="#e58139"] ;
0 -> 1 [labeldistance=2.5, labelangle=45, headlabel="True"] ;
2 [label=<petal length in cm &le; 3.5<br/>gini = 0.278<br/>samples = 18<br/>value = [0, 15, 3]>, fillcolor="#61ea9a"] ;
0 -> 2 [labeldistance=2.5, labelangle=-45, headlabel="False"] ;
3 [label=<petal width in cm &le; 2.5<br/>gini = 0.117<br/>samples = 16<br/>value = [0, 15, 1]>, fillcolor="#46e789"] ;
2 -> 3 ;
4 [label=<gini = 0.0<br/>samples = 9<br/>value = [0, 9, 0]>, fillcolor="#39e581"] ;
3 -> 4 ;
5 [label=<gini = 0.245<br/>samples = 7<br/>value = [0, 6, 1]>, fillcolor="#5ae996"] ;
3 -> 5 ;
6 [label=<gini = 0.0<br/>samples = 2<br/>value = [0, 0, 2]>, fillcolor="#8139e5"] ;
2 -> 6 ;
}