digraph Tree {
node [shape=box, style="filled, rounded", color="black", fontname="helvetica"] ;
edge [fontname="helvetica"] ;
0 [label=<petal width in cm &le; 2.5<br/>gini = 0.661<br/>samples = 56<br/>value = [16, 18, 22]>, fillcolor="#f2eafc"] ;
1 [label=<sepal width in cm &le; 2.5<br/>gini = 0.5<br/>samples = 33<br/>value = [16, 17, 0]>, fillcolor="#f3fdf8"] ;
0 -> 1 [labeldistance=2.5, labelangle=45, headlabel="True"] ;
2 [label=<petal width in cm &le; 0.5<br/>gini = 0.208<br/>samples = 17<br/>value = [2, 15, 0]>, fillcolor="#53e892"] ;
1 -> 2 ;
3 [label=<gini = 0.0<br/>samples = 2<br/>value = [2, 0, 0]>, fillcolor="#e58139"] ;
2 -> 3 ;
4 [label=<gini = 0.0<br/>samples = 15<br/>value = [0, 15, 0]>, fillcolor="#39e581"] ;
2 -> 4 ;
5 [label=<petal width in cm &le; 1.5<br/>gini = 0.219<br/>samples = 16<br/>value = [14, 2, 0]>, fillcolor="#e99355"] ;
1 -> 5 ;
6 [label=<gini = 0.0<br/>samples = 14<br/>value = [14, 0, 0]>, fillcolor="#e58139"] ;
5 -> 6 ;
7 [label=<gini = 0.0<br/>samples = 2<br/>value = [0, 2, 0]>, fillcolor="#39e581"] ;
5 -> 7 ;
8 [label=<petal length in cm &le; 2.5<br/>gini = 0.083<br/>samples = 23<br/>value = [0, 1, 22]>, fillcolor="#8742e6"] ;
0 -> 8 [labeldistance=2.5, labelangle=-45, headlabel="False"] ;
9 [label=<gini = 0.0<br/>samples = 1<br/>value = [0, 1, 0]>, fillcolor="#39e581"] ;
8 -> 9 ;
10 [label=<gini = 0.0<br/>samples = 22<br/>value = [0, 0, 22]>, fillcolor="#8139e5"] ;
8 -> 10 ;
}